{
  "metadata": {
    "num_users": 5,
    "num_items": 14,
    "embed_dim": 8
  },
  "mappings": {
    "users": [
      "e7360265-05f2-4c5e-b18f-c5a4bba6d533",
      "0849c227-23bb-4ef1-909b-b800cb06b411",
      "b6ca4b3e-a78d-4a5d-b4a8-d91faeeabcb7",
      "2312aa20-4afa-4d39-860f-21a12ffcf170",
      "b51fed8a-3157-42ee-8ef5-b192ce925ed0"
    ],
    "projects": [
      "a7a3ac01-6a54-47ac-8e1a-5393233f87da",
      "d13333ee-c649-45c3-a9d7-687a7f4dd327",
      "688811e6-e474-40f3-8760-451deb1959e0",
      "ec81fc05-3be0-4712-a7e3-23e55eceae5b",
      "368779fa-2fd3-4d3f-93b0-e4c488e846f4",
      "91a25d3e-1639-4a20-bb59-8d0e8b30bf87",
      "5163d397-55fd-4666-a5e0-51ead5900d5b",
      "4dfdbc3c-18cf-4f42-875b-9711f57561ae",
      "c5cf08af-c996-44df-9ede-77f27242cc97",
      "0e4052a5-3115-426e-a4bd-f908a4667583",
      "a7632468-f693-4e2c-9dff-45f14b1ab1f2",
      "3b43fe54-8163-43a5-b8d0-ef564ae861c6",
      "a31b4b5b-46f7-4367-9f47-0ad1a0614338",
      "2c184420-1b73-4d2c-9a3b-66f8102c03ec"
    ]
  },
  "weights": {
    "user_embedding": [
      [
        -1.0659552812576294,
        -0.4410076439380646,
        1.7270373106002808,
        1.5050276517868042,
        -0.932956337928772,
        -1.5731067657470703,
        0.4946145713329315,
        1.354193091392517
      ],
      [
        -1.322413444519043,
        0.2058602273464203,
        -0.5812870264053345,
        -0.4359709620475769,
        -1.3020840883255005,
        -1.9237395524978638,
        2.201277017593384,
        0.2559325098991394
      ],
      [
        0.5386273264884949,
        1.4235974550247192,
        0.2540028691291809,
        -1.4266446828842163,
        -0.12356331944465637,
        1.0632028579711914,
        0.8243125081062317,
        -1.554237961769104
      ],
      [
        -0.04332633316516876,
        -0.8069664835929871,
        -0.5589714050292969,
        -0.6835761666297913,
        -0.283378005027771,
        0.30601924657821655,
        0.5154470205307007,
        0.6277577877044678
      ],
      [
        -0.3229498267173767,
        -0.7361743450164795,
        -0.06223993003368378,
        -0.8065714240074158,
        -1.4516412019729614,
        0.6844725012779236,
        -0.8763623833656311,
        -0.3420116901397705
      ]
    ],
    "item_embedding": [
      [
        0.04307107254862785,
        -0.34054532647132874,
        -1.9389479160308838,
        0.36047041416168213,
        -0.20863255858421326,
        -2.0245981216430664,
        0.5234928131103516,
        0.4556379020214081
      ],
      [
        -0.3277847170829773,
        0.4394631087779999,
        -1.0774067640304565,
        1.7878363132476807,
        0.6463478803634644,
        -0.39784321188926697,
        -0.4313063323497772,
        -0.4473487436771393
      ],
      [
        -2.5480973720550537,
        0.21924245357513428,
        -0.685745120048523,
        0.8037480711936951,
        -0.4925609529018402,
        -0.06249414011836052,
        0.9958799481391907,
        0.5858569741249084
      ],
      [
        0.900241494178772,
        -0.41074511408805847,
        -0.10800384730100632,
        -1.0903953313827515,
        1.9436918497085571,
        -0.5883338451385498,
        0.4343145489692688,
        -0.2785361707210541
      ],
      [
        1.7652980089187622,
        0.8034946322441101,
        -0.3723820745944977,
        -0.12431611120700836,
        -0.23239803314208984,
        1.281948447227478,
        -0.8874698877334595,
        -0.2219642549753189
      ],
      [
        -0.8399573564529419,
        -0.798943042755127,
        0.14855392277240753,
        1.1970264911651611,
        -0.6041439771652222,
        1.6726171970367432,
        1.4666547775268555,
        -0.5890780687332153
      ],
      [
        -1.355789303779602,
        0.2588515877723694,
        -0.06591954827308655,
        -1.9639058113098145,
        -0.30764394998550415,
        -1.5555095672607422,
        -0.26662635803222656,
        -1.126760721206665
      ],
      [
        -0.10118277370929718,
        0.16680558025836945,
        0.4681984484195709,
        -0.49124976992607117,
        1.2996116876602173,
        0.09027099609375,
        1.788044810295105,
        -0.6272127032279968
      ],
      [
        0.8534783124923706,
        0.7003189325332642,
        1.3340377807617188,
        -2.4249589443206787,
        1.3277758359909058,
        0.11897526681423187,
        -0.05483798682689667,
        0.2571071684360504
      ],
      [
        -1.1967779397964478,
        1.4493459463119507,
        -0.434308260679245,
        0.2312864363193512,
        0.7502294182777405,
        -0.4177657961845398,
        0.12941038608551025,
        0.3931850492954254
      ],
      [
        0.1117323637008667,
        1.8233885765075684,
        -0.8487176299095154,
        0.6490863561630249,
        1.6276257038116455,
        -1.1132503747940063,
        1.1882508993148804,
        1.0502570867538452
      ],
      [
        0.9381661415100098,
        1.058453917503357,
        -0.8507868051528931,
        -0.9198886752128601,
        1.2109767198562622,
        -0.6501328945159912,
        2.3776681423187256,
        0.19203296303749084
      ],
      [
        -1.798852562904358,
        -0.9747859239578247,
        -0.6374137997627258,
        1.1793593168258667,
        -0.6705626249313354,
        -1.826999306678772,
        -0.15868590772151947,
        0.1628006249666214
      ],
      [
        -0.8645849227905273,
        2.3200645446777344,
        0.3411242961883545,
        0.08567684888839722,
        -0.1143733412027359,
        -0.31823885440826416,
        1.0399398803710938,
        1.3060933351516724
      ]
    ],
    "mlp_layers": [
      {
        "weight": [
          [
            0.05280628800392151,
            -0.09549018740653992,
            0.22764146327972412,
            -0.22686398029327393,
            0.12420561909675598,
            0.04027843475341797,
            0.06851202249526978,
            0.039782434701919556,
            0.234739750623703,
            0.24250167608261108,
            0.23748764395713806,
            0.14771413803100586,
            0.1601840853691101,
            -0.08817893266677856,
            -0.0780392587184906,
            -0.23736920952796936
          ],
          [
            -0.07369840145111084,
            -0.14994162321090698,
            -0.10539260506629944,
            0.014356464147567749,
            -0.07874369621276855,
            0.06575232744216919,
            -0.05060461163520813,
            0.14776885509490967,
            0.14837411046028137,
            0.11620470881462097,
            -0.003303021192550659,
            -0.06263691186904907,
            0.03203520178794861,
            -0.21377113461494446,
            0.05054369568824768,
            -0.10714578628540039
          ],
          [
            0.13409936428070068,
            0.040089309215545654,
            0.0009123682975769043,
            -0.08494475483894348,
            0.20826521515846252,
            0.23528766632080078,
            -0.24300292134284973,
            0.11399176716804504,
            -0.11563509702682495,
            0.21892154216766357,
            0.10703107714653015,
            -0.15655788779258728,
            0.2367892563343048,
            -0.21308228373527527,
            0.04168736934661865,
            0.17465516924858093
          ],
          [
            0.024598002433776855,
            -0.027034342288970947,
            0.11248722672462463,
            0.15305960178375244,
            -0.027272850275039673,
            0.012746721506118774,
            -0.018528074026107788,
            -0.19976714253425598,
            0.028680860996246338,
            0.08650544285774231,
            -0.1551659107208252,
            0.04001298546791077,
            0.14193496108055115,
            0.10920009016990662,
            -0.19172412157058716,
            0.12869539856910706
          ],
          [
            0.09853532910346985,
            0.24105185270309448,
            -0.018775731325149536,
            -0.00636601448059082,
            0.16443365812301636,
            -0.1765483319759369,
            -0.12326294183731079,
            0.21640557050704956,
            0.1886848509311676,
            0.21828147768974304,
            0.17937898635864258,
            0.002229064702987671,
            0.004200458526611328,
            -0.04657912254333496,
            -0.023945510387420654,
            0.1745508909225464
          ],
          [
            -0.21656867861747742,
            0.04253712296485901,
            0.20224899053573608,
            -0.244238942861557,
            -0.17977365851402283,
            0.18393400311470032,
            -0.11868894100189209,
            -0.20361441373825073,
            0.20956990122795105,
            0.03753858804702759,
            0.12619340419769287,
            0.07585746049880981,
            -0.2144947052001953,
            0.02614659070968628,
            0.19910788536071777,
            0.10343682765960693
          ],
          [
            -0.09523454308509827,
            -0.048481523990631104,
            0.17465919256210327,
            0.05319690704345703,
            -0.1944190263748169,
            0.21561959385871887,
            -0.05589088797569275,
            0.06620627641677856,
            0.0051739513874053955,
            -0.20180422067642212,
            -0.14376682043075562,
            0.06750795245170593,
            0.09300997853279114,
            -0.22312963008880615,
            0.22935587167739868,
            -0.20281749963760376
          ],
          [
            0.22649076581001282,
            -0.08959069848060608,
            -0.15962165594100952,
            -0.10029458999633789,
            0.0645793080329895,
            -0.0326632559299469,
            0.07371428608894348,
            0.23221978545188904,
            0.05049163103103638,
            -0.17184939980506897,
            0.014298170804977417,
            -0.100556880235672,
            0.24317654967308044,
            0.11325743794441223,
            -0.040160298347473145,
            -0.01249966025352478
          ],
          [
            0.0691053569316864,
            -0.11768138408660889,
            -0.052357226610183716,
            -0.08041727542877197,
            0.13522407412528992,
            -0.18401488661766052,
            -0.10327169299125671,
            -0.15599536895751953,
            0.16909262537956238,
            0.0122833251953125,
            0.10367980599403381,
            -0.1447734236717224,
            -0.20135927200317383,
            -0.17592036724090576,
            -0.029201626777648926,
            0.12550684809684753
          ],
          [
            -0.07370415329933167,
            -0.03746473789215088,
            0.20936205983161926,
            -0.2006341814994812,
            0.006494969129562378,
            -0.05906239151954651,
            0.23449289798736572,
            -0.09337958693504333,
            0.014539331197738647,
            0.0641334056854248,
            0.1502886712551117,
            -0.02812868356704712,
            -0.16089987754821777,
            0.022890836000442505,
            -0.0707179605960846,
            -0.12497484683990479
          ],
          [
            0.2030474841594696,
            -0.23504585027694702,
            -0.02608850598335266,
            -0.16376882791519165,
            0.16213363409042358,
            -0.23528701066970825,
            -0.03128534555435181,
            -0.21791356801986694,
            -0.24841508269309998,
            0.10428345203399658,
            0.05114051699638367,
            -0.20825695991516113,
            -0.20165732502937317,
            0.12634655833244324,
            -0.17083147168159485,
            -0.04874640703201294
          ],
          [
            0.05143260955810547,
            0.15315085649490356,
            -0.2280881404876709,
            -0.17912769317626953,
            -0.03484967350959778,
            -0.09299933910369873,
            0.08662360906600952,
            -0.2289491891860962,
            -0.19980624318122864,
            0.104114830493927,
            0.028259187936782837,
            0.05720868706703186,
            0.14475348591804504,
            -0.23202386498451233,
            -0.04797139763832092,
            -0.10117748379707336
          ],
          [
            0.14993929862976074,
            -0.10667610168457031,
            0.010862797498703003,
            -0.15950000286102295,
            -0.00527346134185791,
            -0.0910845696926117,
            0.23484674096107483,
            -0.07884570956230164,
            -0.08778795599937439,
            -0.0007269084453582764,
            0.13572657108306885,
            -0.24618422985076904,
            -0.17865493893623352,
            -0.05377352237701416,
            0.10561498999595642,
            -0.18935686349868774
          ],
          [
            -0.09957009553909302,
            -0.04851004481315613,
            0.05741995573043823,
            -0.1755567491054535,
            -0.11795908212661743,
            0.2032139003276825,
            0.033139824867248535,
            -0.24464210867881775,
            0.0037255585193634033,
            -0.12842756509780884,
            -0.09848514199256897,
            0.11319273710250854,
            0.18390196561813354,
            0.19992119073867798,
            -0.22097933292388916,
            -0.00636601448059082
          ],
          [
            -0.025303751230239868,
            0.019721567630767822,
            0.21017515659332275,
            0.1471615433692932,
            0.22470656037330627,
            -0.04938599467277527,
            -0.12212452292442322,
            0.0951436460018158,
            -0.015848100185394287,
            -0.1408374011516571,
            -0.11060863733291626,
            0.19287824630737305,
            -0.11485794186592102,
            -0.03793114423751831,
            -0.004016280174255371,
            0.18229538202285767
          ],
          [
            -0.0532185435295105,
            -0.17591074109077454,
            0.1539415419101715,
            -0.01628059148788452,
            -0.21599042415618896,
            -0.09731632471084595,
            0.16998624801635742,
            0.15218910574913025,
            -0.16439789533615112,
            0.09700173139572144,
            -0.10859721899032593,
            0.108248770236969,
            0.14524120092391968,
            0.04581919312477112,
            0.032499730587005615,
            -0.084870845079422
          ]
        ],
        "bias": [
          -0.0038033723831176758,
          -0.007260054349899292,
          0.23114171624183655,
          -0.08148640394210815,
          -0.10550841689109802,
          -0.06102064251899719,
          -0.042147278785705566,
          -0.03265988826751709,
          -0.20432552695274353,
          0.17945286631584167,
          -0.18769598007202148,
          -0.12030160427093506,
          -0.21277466416358948,
          0.16107231378555298,
          0.09492471814155579,
          0.18274208903312683
        ]
      },
      {
        "weight": [
          [
            -0.2367035150527954,
            -0.2438553273677826,
            0.22909018397331238,
            -0.06672704219818115,
            0.050196290016174316,
            0.22352534532546997,
            0.18254786729812622,
            0.012130379676818848,
            -0.17277804017066956,
            0.014327079057693481,
            0.08118638396263123,
            0.10084569454193115,
            0.046023398637771606,
            -0.151411235332489,
            -0.2000141143798828,
            0.22555962204933167
          ],
          [
            0.00433039665222168,
            -0.030034184455871582,
            -0.03000965714454651,
            -0.0675588846206665,
            -0.1725151538848877,
            -0.13362905383110046,
            0.0797649621963501,
            -0.16854345798492432,
            0.1681755781173706,
            -0.05233660340309143,
            0.12546324729919434,
            -0.00018584728240966797,
            -0.17575615644454956,
            -0.02781510353088379,
            0.24505475163459778,
            -0.22090858221054077
          ],
          [
            -0.07704117894172668,
            0.13408136367797852,
            0.1156291663646698,
            -0.10497191548347473,
            0.0922013521194458,
            -0.023841261863708496,
            0.015301376581192017,
            -0.14666831493377686,
            0.08850067853927612,
            -0.047223955392837524,
            -0.06536239385604858,
            0.140346497297287,
            -0.23712295293807983,
            0.017685413360595703,
            -0.16991746425628662,
            -0.12061110138893127
          ],
          [
            -0.004558920860290527,
            0.0653025209903717,
            -0.09002512693405151,
            0.12117397785186768,
            0.184760183095932,
            -0.2094307541847229,
            -0.08591106534004211,
            0.028925567865371704,
            -0.14201706647872925,
            0.05670243501663208,
            -0.23319843411445618,
            0.036871254444122314,
            0.21139317750930786,
            -0.021834522485733032,
            0.23208874464035034,
            0.10328936576843262
          ],
          [
            0.1269504725933075,
            0.22182801365852356,
            -0.01565420627593994,
            0.15297427773475647,
            0.05140003561973572,
            -0.1270189881324768,
            -0.012365102767944336,
            0.23687613010406494,
            0.078399658203125,
            0.1963675618171692,
            0.18163058161735535,
            0.21007579565048218,
            -0.047462910413742065,
            0.14999011158943176,
            -0.16670763492584229,
            -0.04501384496688843
          ],
          [
            -0.169541597366333,
            -0.1756102442741394,
            0.05863514542579651,
            0.2092944085597992,
            -0.159200519323349,
            0.14299404621124268,
            0.056270867586135864,
            -0.0824674665927887,
            0.1363542079925537,
            0.053146421909332275,
            0.18695849180221558,
            0.13833990693092346,
            0.1545039415359497,
            -0.22539713978767395,
            -0.10537692904472351,
            -0.20323342084884644
          ],
          [
            -0.1710599958896637,
            -0.23630914092063904,
            -0.09233087301254272,
            0.028776079416275024,
            0.07819622755050659,
            -0.22929546236991882,
            0.08673492074012756,
            0.030690014362335205,
            0.11374223232269287,
            -0.16408771276474,
            0.04138097167015076,
            -0.012612581253051758,
            0.15815654397010803,
            0.008924096822738647,
            0.07620260119438171,
            -0.1949489712715149
          ],
          [
            0.14420470595359802,
            0.01207229495048523,
            -0.012028932571411133,
            0.03055638074874878,
            -0.14581292867660522,
            0.17750969529151917,
            -0.06989216804504395,
            0.026823878288269043,
            0.10554811358451843,
            0.23596742749214172,
            0.060341835021972656,
            0.05585014820098877,
            0.20491111278533936,
            -0.1354885697364807,
            0.19835275411605835,
            0.155991792678833
          ]
        ],
        "bias": [
          0.0758998692035675,
          0.23575305938720703,
          -0.13209399580955505,
          0.2333318293094635,
          0.11114364862442017,
          -0.23564302921295166,
          0.09964168071746826,
          0.03325769305229187
        ]
      },
      {
        "weight": [
          [
            0.2067369520664215,
            0.16125211119651794,
            -0.04862532019615173,
            0.3185097873210907,
            -0.04321357607841492,
            0.1368439793586731,
            -0.09352752566337585,
            0.007192075252532959
          ]
        ],
        "bias": [
          0.24204859137535095
        ]
      }
    ]
  }
}